{"nr_inputs": 9, "nr_outputs": 9, "nr_layers": 4, "layers": [{"nr_nodes": 27, "activation_function": {"type": "sigmoid"}, "input_weights": [[4.4999659899500815, -0.65949888846467, 0.6662268844726508, 2.3741630592953835, -3.7080066994951952, -0.4373432116524866, -3.74903120187462, -3.3544379585190214, -4.2416824255809615], [-0.454214068703761, -3.3077254973694847, -0.6586058320324397, -3.3310029262674345, -0.14338500520764152, -4.382631566022488, 4.081951633792188, -2.1235171516220976, 1.2512490271837395], [7.921450694600319, 3.081332330460736, 2.460380126292199, 1.6509798127424433, 3.159821819780926, -3.002002988076606, 2.2232274343466325, 3.6937140044123624, 4.025643103015855], [0.8324437159243371, 1.103018412786091, 5.877818970153588, -3.8350571341356496, -0.2693155466734103, -4.702914611177241, 1.0038859307953047, 1.3031282354180937, -3.425843630250733], [0.9022418698505739, 3.1521179992023995, -3.1042873386150602, 1.5510346903299084, 4.998179019912127, 3.5015737807960847, 3.3429421003604753, 4.354913769214305, 0.39815292238354766], [-6.3156472154788466, -6.894722576545619, -4.14788209131715, -5.388877974326674, -7.748133350516299, -4.73315862004447, -0.8287085935842292, -0.31306311729835723, -2.6766598046162993], [-0.6569670849863805, 1.1924066055799265, -4.805187894799598, -3.3875020692328914, -3.5342796031389363, -2.390623904078102, -0.772941472058748, -2.540968950460032, -6.703155876024833], [-1.431890434304334, 1.3823084752472579, -0.5731697207781625, 3.650177801688329, 1.6187340619469748, -4.091528100162714, -1.903489413418757, 2.0399207135192894, 3.082547760795998], [-0.22079054208953217, -2.55287808187988, 3.3523872357656477, 0.424803623826126, -2.312209549807627, 2.975933407186062, -1.3683534337770178, 5.416676454229636, -0.46322294264098374], [-0.9581206246312497, -5.831314946354685, -0.6918981086923827, -0.49782385138469376, 4.788235311135981, -0.9594002754271987, -2.2617242418410863, -5.944663077692728, -1.1702989659307166], [-2.1725674366183325, 1.4394803570843335, 4.361639885472057, 2.238961323049847, 1.4521039289089195, 1.84808329660358, 5.997406221197824, 2.527325363811716, 1.7570321594690683], [4.154514623922245, -4.268733013413018, -1.64535685994904, 3.3049743925463604, -3.7743558934691586, -0.38410368105687553, 4.393801070520366, -4.396259620790158, 3.1228512966859827], [-0.5032646045623609, -1.1711148845496064, 0.5058409778497466, 1.670378306111844, -1.45450389780287, -0.21475686470321254, -1.0155245546918636, -0.22286658830736883, -7.623393438660984], [-2.46625222359168, -1.9569426371051162, -1.5809094692075991, 1.688692544984763, 5.461365677795588, 2.7110754974841926, -0.8892476683036269, 1.6464885398853728, 5.851767628336995], [-1.2782058440362793, -3.7949545256331207, 4.393486963203034, -3.8936740303951227, 0.03814172984301475, -1.9689748893771968, 5.805916218696807, -1.537538007978748, -2.3158767960102127], [-1.2370590378997357, -1.4916071560896083, -0.6426216398486438, 1.834188687237911, 0.9597896956204544, 2.8084403899002233, -7.560811140094772, 1.3643942443170436, 1.616462349288503], [0.45316275642668263, -3.0953568433633567, -1.2040823170919621, -2.928435365640056, -6.007508918888292, 4.148336893375615, -0.4844147419062883, -1.50614471620009, -1.2189973203779871], [-0.6643900034988137, 0.15461882271718252, 6.044596187975264, -1.4386255616154677, 5.573195237395416, 0.2046537165319191, -2.5030280439497052, -1.5436297320377912, 0.31191394579959575], [1.3726373119369286, 2.2216388979406543, -5.6852157324915344, -1.3281210774073287, 2.2283412184595117, -0.7174907464954962, -1.7708691426402332, 1.2708355839163834, 1.5167221911664825], [-9.10797880917274, -1.8405234362246923, -4.589395204887068, -0.5568336175485463, -8.902225995784036, -1.733615648036012, -1.0752757983041346, -2.556777701362228, 0.997265217176353], [-1.836580920535502, 1.3536513920536806, -1.2720182412883438, -8.764959470688073, 1.5949537567097187, -3.6894720178375926, -3.6069933080148706, -3.7316160396885505, 2.5185938137447126], [-3.600995938170829, 0.35625708761939306, 1.766705753515792, 3.615312566088971, 2.727196933272626, 3.7415507173515095, 3.032267538372623, -3.935997831032658, 3.5209549020787487], [1.202674737073515, 5.119720849379964, 0.48108017800278036, 2.3415266612518484, 3.797553304097793, 2.9508303972320764, 0.027737386647187872, -5.938535733771824, 0.9232355187789907], [0.13681447840843652, 5.784099606602624, -2.0078954740174906, 3.93505139169743, -2.025387370593633, 4.226179810392568, 0.10458461339194915, 0.29721019979311264, 0.8311276855282442], [0.0635832967831923, 2.6751672189586655, -3.0726704224838923, -3.3715544390353753, -3.4046042063700592, 4.138818690769398, -0.4144689100433025, 1.698796282057761, -0.4582900507579394], [2.301485029276704, 6.9652024382253686, -2.082180654921921, 1.360775660946713, 1.750972419388375, -1.8954965496112357, 1.5650312152869907, -1.288776761564546, -2.222270400334156], [7.230936736697935, 5.871157254341181, -3.0981461248288036, -1.267736800451774, 5.045449994313093, -1.190934088408751, 3.3569247880180937, 0.1961002008491869, -1.7091458284500702]], "input_biases": [[0.5381077865989353], [0.3755465526237306], [2.0170947831320096], [0.2960186231092194], [0.5420911312449579], [-1.4062820298057288], [-2.6113349179339815], [3.9165547688241666], [-4.0232824750679175], [-0.8854953387378859], [-2.776606674202137], [2.3514176420227564], [0.42088464155138094], [-1.2629398990458514], [-3.993842023393015], [-2.6190865350157018], [-2.9292475118520658], [-0.01442800382997476], [-1.1695563868331773], [-2.792114523493612], [-1.1139463142641377], [-0.22612118555024632], [-2.6171370571419685], [2.9349412360543004], [-1.5791449080627016], [2.078861131611857], [-0.5984790828871874]]}, {"nr_nodes": 27, "activation_function": {"type": "sigmoid"}, "input_weights": [[-0.5655677040527272, 3.6734194855254954, 2.6477510528909955, 0.8149786509147763, -1.6473200471776428, -0.28510447876760886, 0.11360497551485607, -2.619326428421343, -2.1453329017996614, 2.95162474706539, 2.1579793584394227, -1.4678039961282519, 5.034503991860404, -0.914271640870672, -0.7875415764634118, 0.8164757988450099, 0.3048632243723364, 5.030402574179105, -5.073079928872709, 2.898083348313094, -0.21972060658397466, 2.1317954916582713, -1.8060051919866682, 1.766010591894376, 2.766504129472656, -1.5153515120091254, 1.00578470730475], [-2.324021203042408, -1.6025504786977407, 3.3434798714092784, -0.5305134298309683, -1.8963919877782751, -0.11043670275312142, -5.04425495713961, -1.8353653949144881, -1.9784945543057846, -2.0178483735892634, 0.3539032740348893, 1.1198652319535223, 3.6149846865527775, 1.8434413719337046, -1.4853965026970686, -1.6615615362007112, 2.798805075173514, 0.8189246887062694, -3.8056288182452582, 4.6537735059959005, 2.6911977856609823, -7.940244482866087, -0.9425957746711794, 2.0408228345695356, -1.028184396460798, 8.822508854702086, 5.323698435616937], [2.4854041720830558, 0.8116553905240904, -0.4960754164470169, 1.2360518718849667, -1.97528739149934, -2.863436543202958, 3.052378648562307, 0.4791108984214937, -1.312182413579078, -1.447435080758122, -0.9907894603673142, -1.6388558227824153, 4.645435919747494, -0.033204529945661684, 1.133764032088942, -0.2576051287405653, -0.7209799536976702, -0.3630437083448378, 1.3477405534562488, 4.356192313096581, -0.041441717467113774, 0.709865221461128, -0.9994164792245361, -1.4644792430143279, 4.977456099511277, -3.0215618702148674, -0.586350950706474], [-1.1850580778181645, -1.435005742469302, -3.9046429095454522, 0.3203432650301587, 0.2844287794203635, -1.2107755871031876, -2.49999352762601, 0.6677003554089685, 0.7682409745939545, -1.5929337444531098, 0.9659011654084826, 1.602609936264683, -5.870222896137307, 0.2257983633384709, 1.0273516410175625, 1.896086623663513, 2.7927474990267207, 1.195097613186537, -5.407865874153887, -2.15516787654815, 3.003986333181761, -3.6778631274136413, 1.8503646810571346, -0.7367501667070123, 0.1926076252900084, 1.6837219891963846, -0.26718502082279927], [3.276178534716598, -1.381538509146207, 2.8879450075232262, -2.1628300026602805, -2.1102117718488107, 0.9761655524374766, -1.9436792588024012, -2.495454272476273, 1.4529209317325131, 0.10151145487651908, -2.6521874277287516, 3.2917548060488615, 2.2201282296123943, 2.5978418196168795, -0.864758851066902, -1.1506791484312138, -1.3730387402980548, -4.361972924641878, 3.583149341232834, -5.135705827515283, 2.82675939049707, -4.262594732124686, 0.9100009285574799, 3.109557554786638, 2.785701477489559, 1.7928934510644456, -3.179482535950885], [-2.0379866815737797, 0.7549094200560651, -0.3008887772890077, 3.009653094262224, 5.580789493500835, 5.468056560933301, 2.963128108549171, 2.1338690256689046, -0.7839424265518746, -1.3412065642955902, -3.015851766711554, 1.310205642622496, 1.7096505056464963, 1.0822058776844368, -7.873084595109977, -2.860520654611856, -0.6786071005004164, 3.379221642788899, 0.7908382091584897, -1.0970233686259465, -0.1472935465862883, -1.1665517203877733, 3.2783693160816227, -0.7429621916002414, -3.4773229072586176, 1.1842101306655113, -1.9613040673518498], [-0.38573332952925593, 2.8470338425278934, 0.3627348576288852, -2.307666317740127, 1.3168875273222973, -2.3913690653072313, -0.06477802310978861, -1.1994084098691502, -0.5262338372837803, 2.4594852536329053, -2.490671205286315, -5.612833628763553, -2.0645095307037917, 0.23207069336274772, -0.22810635609455646, -1.326409541532308, 1.221312127794331, 2.2612505531569362, -2.6985928870584233, -1.4422355557302868, -0.7265854411337138, 3.9719467810302773, 0.4391938329320169, -2.5333793314412927, -0.0816629240663067, -3.6665781792839818, 0.3095542359049565], [4.0504592687842695, 1.1001561435370302, 4.3510239528888075, 3.9184454739672203, 0.18818398633361325, 1.1680442424524344, 3.2417659693740672, -3.1172413882003775, 2.1268770655219957, -0.5362236756646994, -6.274225822787834, 3.298811145227332, -2.23589350388229, 1.486164275614718, -1.919700982197308, -3.2195205308003825, -1.0921079055752896, -4.890658904563574, -0.17436660138594762, -0.9380544505392393, 0.06699797017447118, 1.3621635495995252, -2.3347429033092153, -0.8583428602937301, 0.5455386972191532, -2.107264446850427, -3.2769510036844083], [3.357930909069816, 1.7134018577415062, 1.5848817753523545, -3.8038360801997464, -1.2368213133884287, -1.1905062415393917, 3.0069358651402402, 0.05367016473918696, 1.4692369240151821, 5.709521585571383, 0.2551123806269724, 2.6230398660279675, -1.191162172043694, -0.4060699836527559, 3.246060553751519, 0.8277806586733156, 1.673787140041743, 0.5243329168878303, -4.020739186044037, 2.042815024389702, -5.882909427796187, 3.127010260733636, -1.0284512422212397, 0.7805458307446403, 3.0256471075476994, 1.9277012040743278, -0.6874825529679006], [-1.1739978564150437, 0.9659463574024653, -1.88271912608782, -1.2974350125543996, -3.3800636388009364, 2.512231465666901, 1.2308240586691734, 1.9608258288275404, 2.0279170023739765, -1.0035921249759738, -3.840945469096974, 1.8355251186904755, -0.6027502821730899, -5.736609824392093, 0.7741086072862642, 0.38180931160433684, 0.9489233559093778, -3.518811004806941, 3.3862958778407872, 2.1852197183968194, -0.3530818919035046, 1.169054860362328, 0.09025408674467626, -1.4374061325233656, 2.003607128271851, -0.562174269865351, -6.139809104367013], [-3.107376687528992, -1.5408042695990987, 1.7221046271234528, -2.2124690138383447, 1.601486850476382, -0.23525557188192414, 0.5216052637643994, 2.088377158896371, 0.6964950015732602, 0.5784687476681385, -1.9640615354485587, -0.23003258678500516, 1.4492358941435233, -1.9191450997142214, 0.5425132100691067, -4.7108557677445, -4.6392287551361795, -0.3949385723160664, 3.736967893788568, -4.445984670112865, -3.703750886021898, -1.4776086195082687, -2.0487839858643757, 1.9470037558868185, -1.7841320105482028, 0.9938975175700737, 0.2690145800658909], [0.28005301376361397, -3.0806640518938724, -4.380170238637539, 5.028169596196176, -2.469331710829137, 0.9057939965219617, -2.2407782203067392, -1.5745368128859054, -1.5753397755922283, 1.0391817735511537, 1.2551828724781227, -3.110681787118823, -7.222008463610502, -3.2715441879001146, 1.4670804384636764, 3.302833044060852, 0.19566550467859675, -3.590862632828989, 2.4495097462733955, 4.208552930824998, 1.3904326647487455, -5.789015145604928, -1.0302615341773051, -0.476348534756017, 1.425133176425759, 4.519466673847709, -0.05796351610377496], [0.6726727967885187, 3.1320717813490733, -2.268747737062771, 1.0129061184663402, 2.362430553794398, -6.548600774187472, -4.626232126042725, -4.3959859409324755, 4.960020113812756, -2.4801009512552663, -1.8616424286465953, -0.6727021295039728, -3.3025941194486848, -0.6648240002194488, 1.2252876696021298, -1.6894914325977606, 5.143378615417038, -4.336503360401759, 1.338284596739501, -1.413857105954412, -1.2590624023714339, 2.3002905266192784, 1.2579583404088992, -0.42920406600340816, 4.720337028363653, -2.4463944426209103, 2.2566754024180247], [2.2953827101671647, -2.286367406368551, -2.4219782414345485, -2.471258849672039, -4.873726940527701, -4.936555065398974, 0.611766093476248, 0.49369236239758846, -1.3582634487703602, 1.4563947168860563, -0.4839644008899558, 0.37962715797247276, 1.0389685795632613, 0.10751167875977967, -1.69397097769946, -1.7647614661127513, 1.6951944218665385, 3.023089728834001, 2.569374720434058, -0.1674341726838472, -1.031431156002741, -0.1656558156249032, -1.3594713431579342, -3.086053738902831, 1.1544085061989577, 0.2327627358701912, 2.200935564803431], [1.4595539370458313, -0.1264770900071049, 0.5692311634022398, -5.266039160635131, -2.5723988077932116, -2.2375796864073605, -4.506047967165772, -3.8983827332114043, 0.6967584446392204, 1.2865842504008183, -2.4763021914465884, -0.06757371697178181, 0.9101745854883225, 5.027191431030141, -0.2464246905675988, -1.4414286721946168, 0.4968327741296857, -5.083805463071415, 1.6609077082927723, -0.9593689703720265, 0.1290785445909718, 1.1310594905489963, -0.11683284524438416, -0.7946695054775182, 6.2286786629132065, 2.966423229316752, -3.3801477681883383], [1.451719934129191, -3.979432827972167, -1.8416489210479918, 1.5811265079143582, -3.4657113577393335, 0.006256154312490288, -0.8032039691853688, 0.1541497794692384, 3.7178047762108495, -2.1538542245955896, 3.1920176395433546, 0.5679464370611426, -4.040527406417273, 1.8802205656827942, 2.957813270808503, -2.978120775159444, -1.7793153235317576, 1.7618707105095601, -0.19778127673872645, -5.497099050662886, 3.9201914207888886, 1.9161387973189827, 2.8139569817557684, 5.870068945002777, 0.9426874894280729, -3.942988871222383, -5.852727287026591], [2.302781021686229, -3.985793716699998, -1.2127883137596986, 5.477315268161023, 3.1505033615728903, -1.3689727630952782, -1.1771355351082444, -3.648805427948511, -2.344895359899081, -2.266900781605613, -1.2934764282843154, 0.008819597191555456, -2.195747396959109, -3.7305506405229534, 1.2799574790481811, -0.18783820119250563, -3.3145335751213794, -2.1399529534753086, 0.7455971527635588, 1.9672213395344968, -3.1811632357722086, 0.3807081225837489, -0.3033803063077326, 1.1980904024609587, -4.232088471282379, -2.352632866863425, 2.6426551025255125], [3.3926333577499737, -2.0270399278396067, 3.51981600337674, -6.60204044286901, 5.190838051672935, -0.758155139531569, -0.19265169704931842, -0.9614881726180278, -2.1470241782221136, -2.7980139060853615, 1.209615498329495, 0.9955714716718118, 1.7226581727021826, -4.745492230248175, 3.1848265366264914, -2.429762681634016, 0.18254790969804935, 2.8258095389652733, -8.296967362006361, 0.10979147152992344, 0.5880317251696593, 3.622565235801208, -0.8699912436272923, -0.8611719388949731, 0.38120213900706923, -2.8940786998544734, -0.5170039570770247], [-0.3738798898534055, -3.4831097385051164, -0.08119886790153234, 1.505545874422157, -0.017386231018888743, -1.2656212736805423, 1.1403167277172424, 0.49130673427837906, -3.1922993208153265, -0.013142344175753745, 0.7818754291539618, -0.7044625901883933, -0.6877264657712139, -1.4353342774245605, 0.3995395216062798, 1.4773555152249405, -0.3337121645508273, 0.77673480143071, 2.1714569099513255, 0.8923423166746683, 0.00048031653787116346, -2.790012196833417, 0.1647923356513523, -2.4874019801625344, -0.6876257223913128, 1.1847006048097495, -0.45570325366601644], [-2.2807470808894466, -0.9330331558259307, -3.581240488249137, 4.6166173158433415, -0.993200882091681, -3.2320266178186787, 0.18387186795447688, 2.2075201322180558, -0.5168583187325838, -3.645840063407821, -4.044774408315971, 4.414469559444031, -1.707004806630474, -1.4522541104516664, 3.146464709671914, 1.879316676154184, -4.195227568509456, -1.268337225363424, 0.2720433429250631, -4.1092406393040495, -2.551924616285436, -2.1726862202846364, -0.5511681296051325, 6.098793332211706, -0.5567065936691522, -0.12691230558903466, 5.569286436265425], [3.7492256512907463, -5.481203640033093, 1.8449509534329471, 1.6584142271470192, -0.16029919263769687, -0.9300744536183324, 4.008356017922473, 2.1147791922606096, -3.872246209362928, 2.7392209431254, 2.7301587944078904, -3.0732184549557826, -1.1933357231245791, -0.39481001887389866, 5.712682433390082, -2.818807941938543, -1.1840603556391287, 3.9591198438734243, -5.348920155147834, 2.3408036154107457, 0.18677811793693883, -2.6560098578658327, -2.142185133964868, -1.0892029962579444, 0.3074080944665765, -1.520970681181521, 0.5720909333155916], [2.1933205096915516, 1.5921256818635334, 0.3701621519480731, 1.7530315863324315, 0.7121380986820025, -5.101852062601722, 2.294415794427719, -1.310542900835944, -0.6814671855602541, -0.7142355002787486, -0.25622269832336725, -3.2994147690078295, -0.4259806931311797, 0.6328031838831611, 1.0346507145671178, 0.04727788238310805, -1.3689372904212898, 0.09529132196231022, -1.0943440367347275, 2.2168824833351137, 3.6137801909522675, -0.6402899751667447, 5.043724581114694, 1.3306989736676205, -1.0959266824083538, 1.453380343462086, -1.0425070393730225], [-0.35583869008322366, -0.8172631367755759, -1.2503059390549316, 2.709571497887348, 2.5493730625087783, -1.0059644655227555, -1.0979190938968793, 1.8794443116556379, 0.013484772324055545, -2.3039296799686615, 1.151806328560656, 3.0061683287886867, -0.8813435399404017, 0.6750175358370828, -2.8143285617664118, -0.8694364750935247, -1.7439022924388752, -2.891405306952102, 3.964756840824389, -4.017528753751152, -0.3524788268599838, -2.9313251555828237, 2.281231850002455, -1.2732518423177714, -1.1035434006972404, -1.0196760730754624, 3.1289440747919506], [3.6347109188192417, 5.59349480954743, -4.609774204229251, 4.338610813165141, 4.620380017578004, -0.8193285585749562, 1.1181463743983218, 6.2027147601040715, -2.00010587304128, 3.258487737743959, -4.419525356186651, -4.136905643841796, 3.082810010164422, -2.852191669795058, 4.0050321182877875, -0.37222108410547455, 2.751908623897276, -2.007857666851021, 3.597101113499589, 1.3684742183821903, -2.851439453404511, -0.4073893663741839, -1.8598379839130463, 0.9910503057637164, -0.15713759937878474, -0.7334627798335427, 1.8680518063906022], [1.0794066939515468, 0.30202410675646785, 1.2078196615068004, 4.212374730444421, 6.591007473436412, 1.3627515856180852, 2.3794738844141885, -4.220804455258555, 1.1143452708561086, 4.55720448784423, 2.946779887641687, -0.6267253397890472, -3.9167496383202027, -1.9788764825443315, 2.5294530546133442, -2.79890630900776, -5.662110220454958, 0.44039260351142245, -7.787339441445617, -1.594594057770926, -0.5680724713213551, -1.4438355826867078, -1.0037040627808593, 1.1066801378899807, -0.19669765229301917, -2.050580556271485, -1.8226761046500244], [-1.966248142241764, -1.0306212534542392, 1.2369136397125975, 0.7014582167803501, 1.7394569808769227, 0.05039609997530987, 1.3352971675704999, -2.1493435162756804, -1.5306687288653047, -4.732740838665514, -0.4996444274687107, -1.0762466692378647, 3.071998586783228, -1.2576575042371518, 0.9253393555974242, -1.1138686967546099, -0.9722255730734553, 2.053506138124468, -0.9192792914550192, 6.683014771332354, 0.28027400436591904, 1.1345922846885637, 0.8380252517906395, -2.0315601454716443, -4.420133087346745, -0.8776310470966554, 0.5651804417900643], [4.6689872346360515, -3.3983005507396657, 0.8786537692716342, -2.2798779333277115, -5.743247130959268, 2.6397177199887594, -2.3216103640818377, -4.381211722999735, 1.1053588549755753, 5.316732377784649, 3.401249500501544, -0.5396903147809642, -1.308059100164001, 0.7629919839663353, -3.2853402386697486, -3.4217024323835354, 0.21456878844022698, 4.487318613369342, 1.5556830342743517, -0.045488372022241486, -2.949695862705931, -0.4399166777019652, 0.6163915661184254, -8.205512781524392, -0.783231017038289, -1.3153887038831904, 1.722310364593273]], "input_biases": [[-1.7583945241537635], [-0.06121260703436248], [2.883200234395666], [-2.558200542230346], [1.7231101989798214], [-4.4368660257803585], [3.3326686711546767], [-2.416043320038893], [-0.11661636033503352], [1.7424360718596785], [-2.361206907510388], [3.7965406888322497], [-1.1216923526764435], [-0.8511290316847306], [1.6896324797986544], [-2.4064627993659093], [2.653183763598104], [-1.0356926255593981], [-0.7702101051743094], [-0.8929916447603798], [-3.3509926171355717], [2.954010726048124], [-1.61812206254232], [-2.1486004454906555], [0.31783102503959815], [-2.302767253099506], [-2.671436541843303]]}, {"nr_nodes": 9, "activation_function": {"type": "sigmoid"}, "input_weights": [[2.0564806570631435, -2.753467173948956, -4.42548851302353, -2.129657785390763, 2.282123452503039, -2.1355618514226946, 3.5501539128663864, -1.0457637821974513, -1.0870872063206385, 1.8860059746151951, 1.7350427748764174, 3.6609185776623927, -2.3678403132245647, -0.5602024069537679, 1.32560018922301, -1.7305220952313207, -2.4238074726097936, 2.799052606223739, -1.312573320471245, 2.5803108212046024, 3.3573916938010777, -0.9994532297501806, -0.24265046296564244, 5.463678651391469, -3.0817970808130966, 3.103378613774523, -6.435966633102174], [2.549922713938011, -2.2116230599848503, -5.240706638677258, -3.9629914260032386, -3.22049769436211, -2.584644219980573, -2.5294274674291435, 1.6410671880302914, -3.6897975636835554, 1.6718226001588663, 1.7311649904981592, 0.5816704448129852, -2.2696867997052967, -0.6933021451109632, 3.1469004651116093, -3.023108135959712, -1.8059822824583283, 0.7966934568079168, -0.16651896387570822, 2.5092359278755736, 2.094806996038437, 4.086322741733643, -2.650221485922663, 1.240733580650872, -1.9291564853322232, -2.6214469265355977, -2.468941303101161], [1.395977257024384, -3.2255503162932166, 1.251565123118304, -1.6676779592385393, -2.4746361114432074, -1.502731788735732, 1.0308706107753929, 1.6618502731175484, -1.2541087320713242, 2.3764350940547416, 1.9461116850261344, 3.295942913890362, -3.0623809523780774, 0.6886618062514704, 3.4614010678565608, -3.1607520873795742, -0.627875140882372, 2.5113175122761966, 0.7039512189034617, 2.2602690763723974, 4.253641333044431, 1.0539989972189525, 1.6679486017569218, -6.910588683455582, -2.203682742026006, -0.07235247070832809, -4.4281669528216545], [1.414096364424404, -2.4931072584309426, -1.2598300314764892, -2.420275242258746, -1.2995135947579275, -0.860391785740255, 0.3327678194223537, 1.8229542772045586, -1.353001072953019, 0.4391026175800216, 1.1302689798225851, 2.5513952065905796, -2.454710787687593, 1.3724782134258533, 1.6346904798942854, -1.3659242280742543, -5.8055829579995235, 1.309680093895064, 0.41311249612482887, 2.381425589426756, -0.9624620173709353, 1.1966140540666017, -1.355695325359386, 0.5071820692111587, 0.6568405221667516, 0.7894852704927818, -3.4751789942172375], [0.7291487452675195, -2.9430957151300383, 0.4350554911635015, -3.6455163956581607, -2.5470702440788537, -2.6987773571094373, -0.32981087313182056, 2.053377939556995, -1.2453512574353989, 0.42951598414560854, -0.5369519271885331, 2.7621554266340587, -2.111824424949637, -0.0850904996974512, 2.0790657188843253, -2.838941385528294, -6.847667925168104, 1.8204936639456395, -0.7991786930767772, 1.8608301359181953, 3.3737402753766563, 1.5963118645972436, 2.154547612887245, 1.7768120682759567, -4.049434371165094, 2.977178062751698, 0.8729935688104743], [0.8888273190107486, -3.1510028036933755, -0.02618839435695051, 3.713999811694531, -1.7850941328415177, -1.940749560759008, 0.38224410471533, 1.7646220072019414, -2.436622338340903, 1.4085274885617773, 6.330194725793723, 2.993785916691925, -2.4444310974426364, 1.791664696613402, 1.5920599891684064, -2.6824053223145894, -4.335782464075489, 2.478877434518154, -0.32052053529312946, 2.5098510990895098, 2.124223819868444, 1.1529039233113336, -1.2704582342108526, 3.0216268364772105, -2.315747119889509, 0.745359985194978, -3.9498339980490202], [-3.832054263866813, 0.16705707498791977, 0.48698510358170183, -2.5545882476990616, -2.6459542708998596, -0.33642636308713303, 3.2284540830968704, 1.4038735530900406, -4.882991472664529, 1.5290962171357343, 2.1819333252763378, 2.175060756331808, -0.7148079456681666, 6.441455254489838, 1.426263990170979, -0.4431982795338042, -1.2413155782399186, 2.6769035387887103, -3.7645859621601496, 1.4958828854751856, 3.166321709224921, -1.900229930215169, -2.6460012243865085, 6.005355932742028, -1.4685834953825014, 0.26914865825969114, -5.18804001421584], [0.14137892690140838, -1.8542673565435093, -1.129363755925909, -1.9236214812199826, -2.4413002559367127, -1.8077129243891585, -0.06320032914217594, 2.009584472926308, -2.8233280361190802, 1.8585787821180781, 1.2812658571683828, 0.4857187446744339, -1.4629469964888635, 2.6840064414076115, 1.6719445058709512, -0.8711799802247125, -3.7251294959199965, 0.3897596345186264, 4.981454440837479, 3.2921239208081894, -0.8085254050941884, 1.0850764523474294, -2.9390747083245605, 5.534657255708808, -0.2293077920538226, 0.44173666466715794, -0.25633791393545924], [1.2012654415123083, -2.727703735759568, -1.6728145421825027, -2.8734055435301777, -2.1909488871599185, -2.0825473208426226, 0.5048615999456527, 1.6111656822951927, -2.3203006290030643, 2.0187611760238187, 2.0289445537724538, 2.7658864999306836, -2.905184071300053, 1.9178189138471937, 2.20226207029883, -2.549347392409656, -4.41893153385418, 1.9881843255027927, -0.6943130560689148, 2.61297744093399, 3.0200144764826873, 1.3052449998736473, -0.39862011209113246, 2.0559044458872897, -2.7798893332922368, 0.7441626018534061, -3.2420228056572102]], "input_biases": [[-3.5561078763755414], [4.93844136804843], [3.3643060478269007], [-0.011578209496006178], [-0.6358039261851475], [-1.77778165197216], [0.47498592062670675], [-2.1631599553932497], [-0.09596174900341622]]}]}