{"nr_inputs": 9, "nr_outputs": 9, "nr_layers": 4, "layers": [{"nr_nodes": 27, "activation_function": {"type": "sigmoid"}, "input_weights": [[-0.8021755700785567, -0.2090484203478828, -0.03557970256956272, -0.6228826462698589, -3.135614576955908, -2.941561163102554, -0.35159622578861466, -1.8570674231021451, 6.812066676589696], [-0.08363882655194504, 0.42907740652501214, 4.3560421662347935, 0.811467486118247, 2.228383945213003, 4.776001905716035, -0.8513402670526051, -0.6481678347728186, -4.04287411855455], [0.2649782294120616, -2.729188615278356, -0.1809626446634095, -1.2788978177025017, -1.3912068653730538, -1.0530990557663582, 4.769848748460808, 3.6632700908866807, -2.2191031133523023], [-1.7200309616348552, -2.5745832764553302, -1.5321331780311962, 3.0859305589632458, 2.43933576264335, 0.25218834997011785, 3.308990945594381, -3.125871748092463, -0.4009051105535194], [1.5428711203984065, 0.925868282294418, -0.6632464475824127, 1.8910827913718982, 2.3835436420345695, 0.7985702408859767, -6.864592147865568, 0.6236626231628724, 0.41679572881234384], [-0.5313882777057902, 0.2881218778285609, -0.22660156311252033, 2.9380839589085133, -5.0222093079604875, 3.6335974071812154, 3.282131954694841, 0.8477974019046742, 2.290561207002072], [2.536201074594388, -5.21644125038318, -0.4488088539080274, 1.7626716735574262, 0.096171671440693, 0.724154581232094, 2.2493466535089586, 2.4717069423201607, 0.7250281442473411], [4.989366536794686, -0.8303813923552117, -3.199203931391699, -0.5334775699965877, -4.50883310511458, -0.7565879439699945, -1.1833225807451613, 0.13368593155728015, 5.852590446444151], [-2.3853533374725027, 2.3506875946083, -0.10473104770523096, -0.5075472505644615, -3.0254828444770525, -0.5464036169889792, 0.9526108640904063, -1.3316299469245383, 4.500779174055295], [4.3597758659077614, 1.9389405440335592, -2.398307500507371, 2.6106690154267134, -3.9884894696582185, -1.171057688219478, 0.03444100994126953, 0.8053611801035853, 0.7369947097154095], [4.350702949305788, -0.9645967080912942, 0.5147045805878108, -5.838966358546466, 4.279915568373677, -1.6926256852271029, 0.27325189348622725, -0.9076074639335922, 0.2784604694629241], [1.522006007842101, 0.44617818456926606, 2.559538081677482, -1.3429662486752547, -2.7857375172519756, 0.12563324808849194, 0.9447431242611475, -3.001862752173707, 0.9236260144416822], [1.6651883788620574, 1.9305205103652563, 1.1308099149755724, 1.1945135756273462, 2.9875589630439285, -6.5957005412009115, 0.9959942623344394, -0.8572722568467902, -0.47277153432349533], [1.9503010468935738, 0.4670882461518117, 4.255539530911264, -0.7965347052786554, -0.5643993869641523, 0.7836831568442629, -6.479674060941116, -0.6373969631712246, 0.6233386005622797], [-3.3452029949589064, -3.5297159148182766, 0.5409844777986355, -0.5281463942713138, 2.4155942164492195, 0.6612382835349043, -0.9811198690920128, 0.037804351075320305, 4.241517108607055], [2.1385616164695973, -1.8236937652260712, -0.03290799527526712, 2.2226468404609685, 2.800351688186118, -1.146694412790695, 0.262707439096732, -5.047005785357796, -3.2951426244120787], [-1.4588666095951153, -1.749210753947802, -0.5784363645407641, -0.7959167289398494, 3.6890719074134783, -0.7236096405487978, -2.755874564659292, -3.2142118700712277, 0.3841703303003474], [3.7580118364574786, -3.4769595854423883, 1.0228095527724674, -0.4257245984638097, -2.531078908510685, 0.3249904409387737, -1.4361497443339974, -1.237281865045724, 1.8436104995432594], [-0.6281870297080325, -0.9791666369281987, -0.292718303402497, 4.527543999744158, -1.5037608471621677, 3.35386729348633, 1.266334958299277, 1.9448263509071715, 3.488717991939759], [-2.671854894247518, -2.1438635063532705, 2.8556283323321616, 1.5309253383195418, -2.223092827943294, -4.048147673867411, 1.5184441538321116, -0.9884042052817198, -2.9375708363739945], [1.7641382661324292, 1.8281435798191197, 6.0164595746037115, -0.40287366988150286, 1.179560819304507, 2.2795317482903528, -3.9135987522367612, -0.6138138592882011, 0.2888871056296538], [1.0293124098097082, -1.5873909545998617, 0.8326218864067965, 3.408819328346921, -3.7289966584438003, 5.119937160743029, -0.8491965658655928, 0.06139129552660066, 1.6652440616032766], [-5.6025003645640234, -0.7246109858869271, 3.307977517065836, 0.8182592729416771, 2.998234120305979, 1.3815316385322072, 0.5521674297154915, 1.6490854944060207, 0.05204962683186903], [0.48289431844391434, -3.562032574445632, -2.2769974323050532, -2.814315430378937, 2.99012651950154, 0.9981115813538335, -3.6218009766802304, -0.018014361421027508, 1.0461321285104699], [-3.743023412302087, -1.267973885284487, -5.155790501796631, 1.0806442236885714, 2.574107765606284, 1.3774832461331519, 0.6752782974607776, 1.9361633844546133, 0.8100497958789802], [1.5748372044667103, -1.6436985444013823, -5.3515123347570155, 1.0995310107407197, -0.24614208043670477, 0.44002476153225084, 3.0072005320857675, 2.5436970050819148, -1.5915586055631465], [1.7467166475197746, 1.4667345993029317, -5.981333180356375, 1.5095351040308533, -3.0638646450387017, 1.1290922206351348, 1.9302098747799001, 1.3036535547627992, 0.2633093760799293]], "input_biases": [[2.6777503917614065], [-4.501947399203952], [0.2501498667086091], [-2.6861980179871767], [-5.011125986553145], [3.175136317905416], [-3.9042097002953944], [-0.3745792386022655], [2.235099956451487], [-2.234567426723157], [-2.7300265552346907], [-1.7016303470996463], [-0.6031750888406328], [2.120973830260144], [-2.051187878273771], [-3.0830522330316796], [2.4704185366158007], [0.13846426042378115], [-2.4611676883896325], [-0.09880443417301676], [-1.791816004554956], [-1.199749729901166], [0.9448728368137728], [-1.3965955418608045], [-1.3746674624780661], [1.388446015390339], [-1.2207915344518419]]}, {"nr_nodes": 27, "activation_function": {"type": "sigmoid"}, "input_weights": [[0.5547830362265779, 1.9019349078822076, -1.118276871916746, -3.3986982645699273, 1.0122860264556561, -1.4866351441004992, 1.6969154461171871, 2.9957849877666574, -3.357080095286243, 2.8262915695540802, -2.3423076746126865, 1.7068806658600573, 0.7577771070923423, 0.3889270226276005, 0.7568798181195159, -0.07973509047732617, 0.6016093654420746, 3.987571699101126, 0.36556209877522056, -3.010809937861425, -1.8267985558201365, 0.7460872558611571, -6.891231143514885, 1.8700999994320164, -4.419448575049362, 0.11131236120630117, 2.352601380758376], [0.7054314701960185, -0.02434207331255715, 0.2512363181848497, 0.10313747132497433, -5.029530618238752, -2.936551937523942, 1.3846671271234967, -1.5806014327176103, 1.7100933202706512, -0.16508379985132762, 0.8754634948691188, -0.5385900317976969, -1.309127145818084, -0.28245564339841384, -0.14833293339101017, 1.2882644166494504, 1.3046167668802753, -1.1465170164633474, 1.1617601126324235, 3.904768647484299, -2.8309495525136184, -1.1008775105363848, -0.5796293026476437, -0.14565585711064796, -0.001729530508990852, -2.3168617029504954, -4.314815947085751], [1.1027235286699926, -0.06193454606663375, -2.229717931664519, 0.41135202000757687, -2.6735424342355434, 0.9975804643571733, -0.9719835705420605, -1.4153936260201951, -1.9599885553312977, -0.17085636406653074, 2.2607323462348976, -0.4990866363005116, -2.529430494523283, 2.3087887864727206, 0.47230674765330927, 3.676836679093562, 4.107105739292181, -0.7774619530397493, 2.548977691697421, -0.47483610489939465, -3.145998464105202, 3.7496342451525737, 0.5362264347935095, -1.984127168428638, 0.9543852218840367, 1.6586584687616528, -1.3575414991376444], [2.052611368764724, -2.8311018794677407, 2.2916398371261666, 1.2702784941556808, 1.0887586231005546, 2.218077016407509, 1.6005146366652172, 0.08041492950435335, 2.8222569718845825, -1.9597856627392007, -0.4143112944577408, -1.1325268828798571, 0.6880308313970034, -1.2926964260746463, 2.156865617180363, -3.4753983081921995, -0.9197895151172488, 0.25457397288811884, 3.5839092993348336, 0.35203991165944837, 0.043692456544319226, -1.618073389826989, 2.2784231768249508, -0.5449486298122285, -0.11982528726621376, 1.1553992587200637, 0.9845128950647786], [-0.17435093281394204, -0.7196573284170511, -0.14663606676877255, 1.711347833412738, -0.3649050153719901, -1.326684923452609, 2.087707282229797, 6.963412764333847, -3.036609428861401, -2.566253542701293, 2.7571178235872713, 0.7783116887373152, -0.2389483628486123, 0.5456887386856607, 3.267248741684238, 2.001729747762946, 4.654536174984077, -1.5607609431353728, -1.9876547559391182, 3.73241279128033, -2.045029188279912, -2.4529461817754634, -2.010849129174317, 0.8261067574644827, 0.40098553713918533, 0.47807651042081867, -0.8301445844121481], [-0.5097857799426002, -1.0053004255664868, -1.7703003384306497, -0.4690509241752383, 2.2174672387686223, -4.743808819439216, 0.3419466016628776, -1.4356127834372066, -2.224520352342902, -3.266824143984604, 1.1287934912432478, -3.2365922951975628, 1.5259380621111855, -3.44661372827963, 0.5093513818435998, 4.15625153355491, 3.819413794934443, -1.6072100407600396, -0.16943983382025557, -1.3500341013111308, 1.3401342267008332, -1.2894400920889753, 0.18830018823387593, 1.1305409189999642, 2.2271477060439575, 1.1064785392630074, -0.36606855087953766], [6.244637697260027, -3.5196207263599364, -1.1847039040934921, 1.4230524329349445, -1.0102256672045105, 1.885215113833656, -0.19907135643748755, 3.6818650802394273, 3.5979532398299123, 0.6663275427103653, 0.45244630327582047, 0.9693656176975716, 1.5646732460399755, -0.7051971070040429, 0.8979940927674512, 0.08101103456997434, -0.601435578660013, 2.0422769281701423, 0.9885679291060605, -0.4094523914769893, 0.4875762854914798, -0.3524022858755966, -2.58412228946176, -0.5857361902994734, -0.6540852380521759, -2.1538894563654236, -1.164125200722167], [1.0322123193833528, -0.34721503071205484, -0.33039652498439914, -2.70881755662379, -2.027133820857343, 2.243652482733326, 5.970806944565537, -0.8893490688381738, 1.2926297632587131, -1.1136011704951603, -1.5651896708165722, 3.4217493245375445, -2.2485916078575956, -1.079012960003952, -0.6531197810282318, -0.5489522242964748, -1.3313448321601535, -2.4174719365141075, 0.9233607346221033, 1.6643231583959648, -0.1814271482079086, -2.2616700376208447, 1.9870266430438142, 0.22789995042671554, -2.2571516168083816, 0.8739929899748192, -2.3878484112518117], [2.3917353567915103, 5.396074314635728, 1.2955070086442657, -1.3051663930129633, 2.760115771414588, -1.4406498728324322, 0.44183961252068654, -1.5443998779969026, -2.377677004217842, -5.089201570460156, -0.801998801430111, -2.2176597911589533, 2.192294356905335, -0.44254780062119875, -5.488350259452711, 1.7688504232686497, 1.650878583207462, 0.3714586089121602, 1.213447775661656, -2.910042094603819, 2.722767909310345, 0.860625685399371, -1.9298851109754807, -1.655927870748452, 1.2206626034660546, 1.638099307831515, -0.9653251087476329], [-0.06107588465623666, -2.143839673882057, 1.3272166384652588, -0.05873195741948293, -1.4266686896842218, 5.456211376216457, -2.0989346499570622, -1.70369508090056, -1.6479311290446896, -0.2336478427864122, -1.130808756754504, 2.3793136443115652, -0.7483529363616997, -4.78471631455554, -0.23494535248131532, -0.7223526476092269, 0.10312442579348842, -1.1953476733475237, -4.334103168186337, 1.317801561703553, 2.2598880400077377, 0.2731276515970908, 1.5132509357136337, -1.3913693674489318, 0.42712458186422886, 2.3479398792726225, -3.1535706712948723], [0.5935199533754405, 5.137327710768952, -5.349302037783233, -1.2511176118418923, -3.0815356105420597, -2.5806806555037194, 0.1293932879525685, 1.8057407686138176, -2.243700723013804, -1.6924153324749733, 3.731228374113821, -1.631644238529977, -1.0310767177765308, 0.7497536343440375, 4.246789983214209, 1.2790166796884919, 0.4111088218047485, -1.665575060209261, -2.733293217339411, -3.4543756018109724, 1.9751947958298117, -2.7825656864116786, 0.5246013496778179, 2.06592146981334, -0.140400514832463, -3.538666575624083, 1.6413147442738154], [-1.2100877075476397, 1.7345785910845266, -1.7281044520407007, -1.078933215976928, -2.373780460641006, 3.4843181299682358, -1.96452638084345, 0.4393866094864425, 0.13067486653822769, 0.27754162599815674, -1.6687793324920932, -4.364342948429451, 1.8486930861554838, -0.2440974331384109, 3.2035659493754354, -2.697080068138489, -2.155978836842208, -4.331584249289332, 1.2487196828797995, -3.3213324478233677, 1.3458550038296055, -3.001508248755392, 3.03544134915305, 1.0883902267379268, -0.4546052135764606, 1.2012230686359466, 1.096726118787148], [0.8565202032004482, -2.9021379608620523, -0.8283290397048343, -0.06642441847763433, -4.6027845218023815, 1.766190834856725, 1.0707340485696384, 1.3474909267415567, 2.5956623956591587, 3.008700579917125, -4.989713814562845, 2.9879046510804197, -2.4977707728550738, 1.6583977460149357, -1.2956031376656238, -4.361840182373639, -6.6019022841654635, 2.7246083583146334, 0.4765509711945491, 0.8462172681896574, 2.0531859269036192, 0.4551656379734944, 0.3799795171883645, -3.8452450337962043, -4.443217094606913, -2.1377070012821515, 0.9593824285643477], [-3.4045177036187653, -1.4211538117120446, 1.6118611330225319, -1.309387290307661, 2.179914614204254, -0.7822707072373881, 1.3049285323574313, 2.19853302939397, -2.3793677975162235, 1.6404707849256575, 0.33870769630283154, 0.7308669625344422, 1.3429312192273115, 0.3616275362779656, 1.895133596843313, 1.5791778183731686, 2.5797130960124135, 0.649406712678321, -2.6481856336959155, 3.506448682220626, 3.501517763054741, -0.6640071584847885, -1.7693176653522042, 1.2299405309221012, -0.5868994174580334, -1.4508388799205836, 0.6478524698187116], [-0.9299484073449389, -0.017592201193530277, -0.1744388935036188, 2.8178545446293053, 4.2828564220161, 1.6653246062088252, -1.9023954426584226, 1.9654490860700549, -2.816675356457729, -1.4232494033955703, 2.339298984430861, 0.2601282612725739, -0.6115237233120645, -4.7053123588967125, 2.14371111157591, 0.44902723447589227, 1.1167744435630391, 2.1751086706544833, 1.9238136266699273, 1.1811400461622286, 1.2775590366086242, 2.029784738336716, -1.4452022246858518, 1.0483852638911837, -1.1874039182964609, 1.8205346762367134, -3.171282760776664], [-3.131988853958576, 1.9523765216974542, 0.9406126390388114, 1.7822450775526235, -3.6378652513188126, -0.06516961537846248, -2.033055556994727, -1.4728269503178202, 0.21673958966553972, 2.9283749639336927, -2.0629782654545146, -1.566507855563721, -0.7181192707358683, 1.7243193122474856, -2.2463406529547325, 2.686962339638073, -0.9928216708903111, 3.2539639158157354, -0.08744592773758351, -0.9732355934575444, 0.023819129903320864, 2.125232584020455, -0.8873299854614459, -0.7385929403502466, -2.132189507305208, -0.3154506370300406, 0.8405926481396715], [-1.1494482482629662, -0.6528370340678773, -2.378918537589077, -1.8548317405685562, 1.1604766808578437, 1.474929149598117, -0.3025421675239079, 0.7216444821404806, 1.577847826659679, 0.18165609179526138, 5.0176180115165145, -0.02186015395760564, -4.385930864329792, -0.8840340947807673, 0.19214640934642457, -0.11911652756081294, -2.2839322129192623, 1.0131844454616834, 0.8596171576286659, 0.18303884014003866, 3.410524051582742, -2.4198970232635606, -0.5154138201202044, -0.9355761469816846, -0.8115149848699149, -1.0345044020849365, -0.7265896309012184], [0.24590307557099986, -1.6746702570773375, 3.36646247657539, 2.324036975002867, -4.269566191502522, 1.3633184070724222, 0.9376494280870843, 1.4952816148320565, -1.3122170405595732, 1.766193694326938, 4.349213200122935, 0.9361021774700289, -0.7426739089543002, 0.8776497391052529, -0.09552601535677978, -0.45802875401043963, 0.056742963239279305, 1.624608293600272, -0.27922508244607885, -1.1084532004096765, -2.784416443705619, 1.0705991706983111, 1.6526182883457603, -0.9637053484045853, 0.28456576266949507, -0.12500346647153213, 2.029965167998892], [-0.88775452003016, -2.094106481641037, -0.5541266695132487, -2.1347149574165534, -0.22791952000928709, -2.4169682517229796, 1.3710801242524489, 0.09301325665610675, -0.12431975076439591, 0.9188045361322867, -2.8170841781714855, -0.4254231891464437, -3.3811385039961666, 2.3335328514593323, 1.7603896392608676, -4.336303998099525, -0.7398384325258821, 2.1720790047661644, -1.009569810151219, -1.350769786582438, 1.4701562563623403, -0.1070363141025938, 1.4719509212987367, 1.6372881457089654, 1.9669202526672327, -0.6556089290008807, -1.825537384180751], [0.9691757172612236, -0.40530819972452836, -1.262994355678327, -0.5618098128202934, 2.7843017827760046, -1.1300021321239633, -0.31305542065265024, -0.14513925444069226, -0.04952616861713106, -1.7324648402394267, 2.0454410519441715, -1.8877087458116333, -2.0674155171169524, 2.2556958966098213, -0.23119270893645347, 0.7769442020259625, 2.7041416403635767, -0.8937470966086384, -0.024295822806902137, -0.4575770228506744, -0.014321179468886579, -3.527149785485084, 1.6036840971502617, 1.9866781485410614, -1.4392140849095176, 3.6268568378450823, 2.6422629619654026], [1.2675079693016118, -1.1132963914173428, 0.7205745278297989, 0.5501048007540709, -2.191926479257, 0.25066107362687523, 0.5152849580334472, 2.263646341298777, 0.2620349040814109, 0.1384106573724888, 0.6824355395321418, 1.100746408362009, -4.698907067914094, 1.9690131891631364, 2.2335795967361225, -1.2748866863431745, 0.8475528833088632, 0.7620481241477688, 0.7323043170466296, -3.2752700354286395, -2.470880588012917, -0.6337804538309932, -0.2977498309512933, -5.608155371191444, -3.3073530180035497, 0.5247396306265739, 0.24079444463779706], [2.742113862855953, 0.8330791798179266, -0.055320510314401175, -2.6680429096126383, -8.152452668079746, -0.42325675054122075, -0.21534131298426742, -2.6166557546731806, 0.11403939531808932, -2.456388760750988, -1.7032235673352305, -0.6226370174304362, -1.6737291369258787, 3.4628503266033603, 0.3730620807063833, -0.0908490421780176, -1.1929552903301626, 0.5456403486851515, -0.8019412959964215, 2.4954531931677226, 2.8517538446855086, 1.632163272092642, 1.152295355125372, 0.6945636748872172, -3.7875375667868587, -0.3193357443241365, -1.8309041343521677], [-0.33364975122312635, -2.4500038849549917, -0.9880924884843895, 4.156203435402541, -3.101498036154393, 0.5010264272724958, -3.4989075230930973, 0.9579743559093797, 0.06030726865621215, 0.9960561917181334, 1.211128818241061, 1.3844420535221051, -1.384734876413313, 2.114324656701183, 0.4807013316339102, -0.08606398587867778, 2.78227332287672, 2.805873116872945, -3.9147699102120392, -1.1689759981504053, -0.8228389688159726, 0.015411639069618756, -2.3310347767827917, -1.1424999182900224, -2.776234894181947, -1.638934575050675, -1.3535849940050548], [3.3010435742477684, -3.5230621355368186, 2.0509421152148954, 1.3872090608079921, -1.0804889138477185, 1.774441114031643, -0.21225974865155495, -3.859232330141477, 0.012598939455426237, -1.26572661426639, -0.2638267188209444, -0.4390660648370142, -3.2450118613891035, -2.121575932077296, 1.1376440865475597, 1.6858487351602924, -1.2878869934240353, -3.0729548497560333, 1.9637452935309971, -0.748848088999239, -1.2639603133074657, 1.0540271852459728, -1.0579360889066567, -2.174470161802319, 0.3906371408753625, 2.8737619804597063, -1.1161860245472126], [2.4815407158374785, 1.6394890968352893, -0.6137245662794897, -0.6461379067896859, -1.879578509382933, 6.061403619708013, -0.27424553619070197, 2.1553397758277546, 1.6346625541319182, 1.8736926363174733, 1.2142646637052432, 1.1631301149483626, -2.1203238401071447, 1.4997917074673714, 1.290844760731326, -3.7575593485766854, -2.6306682934583283, -1.5983332269057784, -2.0053045086632064, -1.6031595705412656, -0.231289177344089, 0.9319594760920802, 1.5134185390207882, 1.1319163732647395, -0.0531622744391939, 1.1928842417474061, -0.03908881864187822], [-3.856709997376334, -0.2866874855167389, 1.6148519375015873, -0.6605884171765025, 4.0771009960038205, 1.0657630476715803, 4.620166461568124, 4.357707441422886, 0.038983305344519076, 2.4049007574363563, 4.676396397798253, 3.8240938997929486, -2.094230546292351, -0.21040307463982963, -0.8765345203136734, -1.1951493218145033, 0.16594745474187267, 2.6030564502745825, -2.6675192595619617, -1.899161461273021, 1.6928968231444728, 0.5534771687652031, -4.514957559552856, 0.4437828151992468, -2.60001941064723, 2.109072381999637, -0.4282962769018147], [0.31627405836344896, 2.9183462475730915, 1.2642133200655108, -0.6159830560892474, -1.3910395854458761, -0.21363773579953343, -1.7150147601583614, -0.21636798617135886, -0.8649072793114657, 0.8791043722500548, -0.4816020479133271, 1.7103224377236963, 0.8236951331905112, -0.6168218500425956, 1.9883569947503685, -0.2930365589571994, 1.5939887577854497, 1.7667820948117479, 0.4301206208050331, 0.42832364052718896, 5.69404936877141, 5.132404365100422, 3.09896306082945, 0.8068103902423699, -2.6049300694009743, -0.18696595916101952, -6.821946284274657]], "input_biases": [[-0.9948021264642334], [0.3939065217465698], [0.8333078309045323], [0.7593097107907976], [-0.021009812596207263], [-0.30058560169488313], [-1.012562348309919], [-0.5956835140313332], [0.3820524017095854], [0.1905133909352589], [-0.31773508953683494], [-1.0470769036141263], [-0.46186748389420684], [-0.006242131547964818], [-1.9453512832186444], [-1.1530816005999338], [0.02627416886946285], [1.2577924595452168], [-0.9805845899129263], [0.4664292360103252], [-1.06990270751496], [-0.18178515136148787], [0.23969122317459926], [-0.6303078402722272], [-0.05232534777888607], [-0.0695521489178474], [-0.037588737565480784]]}, {"nr_nodes": 9, "activation_function": {"type": "sigmoid"}, "input_weights": [[-11.179280366214348, -2.7456771064590004, -3.71752131837479, 2.8011881951956195, -6.437448700230901, 4.80097129944707, -2.4542717308157886, -1.6754770893692834, -4.392884685572639, 0.6590891639946679, 6.218630746162715, -5.3445686129771675, -1.192933035892185, 2.87784571809643, 1.1163142153754169, 1.743813530074203, 0.17533522895496903, 2.617315274292948, 1.8486557449978174, -6.48496881990056, -3.10528188799197, -0.9278655880442653, -0.9973767377525605, 1.4822736543975268, 4.676527633215737, 8.67874862705666, -2.2512885291778315], [0.9523890854584152, -4.865705367656982, -0.17967042480874054, -4.154096879633963, 1.783469253059978, 2.304453905134946, -0.6189865708811233, -8.185576422173092, -4.021051319074062, 2.8837982335359302, -2.83445543728055, 8.618063734202156, 0.6135041275665637, -2.7339067889173303, 8.459976059594156, 0.8707365823920781, 0.030979679276522138, -3.6387303049117636, -2.9955520187328655, -5.950104462945933, 0.504972248084156, 2.772750874809913, 4.258952241101465, 0.8542099541028203, 1.4318131661202869, -3.1189388653003705, 1.4105078209914816], [3.4464706927108772, 5.719365627381038, -3.919435345113029, 2.9040979330511725, -4.9242764691342575, 3.009275941742471, -3.643894139357552, -3.4014441285819745, -3.592780436591976, -1.0748541228679869, -7.820435809851157, -4.739928465350568, 4.4685150926133135, 0.8244849263756204, 0.4117159418729296, -1.6856842621217087, 2.6012956461467356, 0.6604270673233348, 0.3212829065632888, 3.333389191364823, -1.157901760006868, -9.471239456886051, -3.1296247544252784, -0.3096634008465689, -3.9501828654605218, -2.913252757876852, 8.291566087566427], [5.276168314837724, -1.9787264048522433, -7.93493669354098, 2.7374739525757548, 5.305362912561495, -0.0238906895437193, -1.5460343110712051, 0.8827763506809297, -0.36866556382309107, 4.968269020173652, 4.294106954661076, 2.593074166610603, 4.129087742713925, 1.9347718874885111, -2.1748000203903883, 0.5835834001980931, -4.812786525541916, -5.27543947259443, 6.167419932849752, -3.287074060181227, -3.612563234111324, 0.8765482404301157, -2.900527881095796, -3.043400582800175, -0.9679335286333413, -4.184423571801371, -1.868174186287143], [0.7337043085322341, 0.2603984121726424, 1.0719325587887443, -0.6992932506820532, 0.6880050482714122, -9.409698808951445, -1.327826318343271, 2.2101022609660936, 0.8081029630695109, 2.066833805778964, -3.592827433536334, 1.1134260801681113, -12.082432340203695, 1.0354070011795748, -0.8203799641071475, -1.4919478093390488, -1.4440003471456648, -3.535666326260948, 0.7854826581492409, 2.0709325308033204, -1.1040668319679603, 0.9537149066973023, 2.3213068905928336, -1.3392521890778661, 2.012572734986252, 2.744707405976518, -0.2735111106759366], [-2.2297671624626076, -3.3983384868821083, 2.0705412815653843, -1.015757391343379, 6.796679191230321, 1.7304216741246494, -6.0153565101592035, 2.731620086012738, -2.044129880941993, 0.97428078777038, -5.963167013363143, -0.14319376699358755, 4.543098293803959, 0.030233885316451745, -0.467186108479385, -4.354523260435191, 5.938031086361903, -0.10616403505418877, 3.554972470994703, 1.0154758658346423, 5.680971267841925, 1.7093530728631616, 1.7726893253481835, -1.3438249990192377, -6.695905387584712, 0.11021496858741377, -9.34602430131591], [3.085313691493248, 5.327526655469961, 3.278791349685104, -2.8036307729990035, 1.3598826265333204, 0.9358023539131497, -4.20070300211101, -1.772139869987111, -4.018133283193228, -7.165277411268285, 7.368748427367577, 3.7833192893871987, 6.562606144222892, -3.0959799154229883, -4.804317426833344, 4.077249521556984, -4.513108103733935, 3.4561321799350906, -2.4426369123256437, -1.1400019099835392, 3.9845541130431537, 5.433592843667714, 1.2674183073214145, -5.577593490191114, -2.3176024118386005, -3.7297161696587193, -4.641041002844014], [3.4424661971719064, -2.4080644812394483, 2.2867211160292404, -6.492434685573203, 4.242987030403367, -1.0592714800096967, -2.176356244566049, 5.316277776981764, -2.8076507710411893, 0.9250415959102046, 2.4193420344078316, -3.089986979374084, 1.5177012491227257, -0.22593414661654462, 1.8093892701756484, -2.3997734034850478, -0.740149852998656, -7.594395992584981, -3.928827918072557, -4.2688894409859435, 2.1756754876555413, -3.326822145123084, -8.464637116540672, 3.036565718345677, -1.4768354527950671, 2.914454127558795, 5.1022028122702245], [5.134005479470375, -3.6454375027294392, 0.17349332525493477, -1.0037942970245193, -6.198464889431131, 4.230455408595369, 10.317698980743211, 2.5768981600343697, 10.46607085430804, -0.1398918058654631, 3.5477871988980754, -1.9443494586871228, 2.8922143976544725, -6.666569934974884, 0.2675742044736845, -7.806630472106098, -0.585178115003743, -1.7512199455130997, -1.7086921401406072, -2.331843168379339, -2.2717031889854375, 5.225682965166256, 0.12412304114204706, 2.7330870617612155, -4.7241436253722915, -3.540737966184401, -4.375650185874851]], "input_biases": [[-3.394742560954018], [-1.2254092869829627], [-1.4642453223694463], [-1.0977541998810747], [0.3680987803961109], [-1.6437003415247087], [-0.4776913351899804], [-1.642874354872439], [-1.3619361015747633]]}]}